{
  "levels": [
    {
      "inputs": [
        0.7244517512412918,
        0.6103159295172795,
        0.24718818445458135,
        0,
        0,
        0.4854847591952456,
        0.4270201113348512
      ],
      "outputs": [
        1,
        0,
        0,
        0,
        0,
        0
      ],
      "biases": [
        -0.17359529357025993,
        0.22777127768648514,
        0.4717781635969359,
        -0.08277985329557858,
        -0.587421500907916,
        0.23000282992203738
      ],
      "weights": [
        [
          0.2742843519837511,
          -0.3895694080825426,
          0.41327854657888996,
          -0.13264932906646365,
          -0.4213637383441811,
          -0.03500618094648382
        ],
        [
          -0.36164291051272246,
          -0.1785685245488373,
          -0.06735055488646825,
          -0.3109241749426524,
          -0.21404886627613406,
          0.4397450097427055
        ],
        [
          0.011347461306291287,
          0.01307923632592864,
          -0.3226545254280794,
          -0.057793821439110424,
          -0.4294990139152577,
          0.1771245128831112
        ],
        [
          0.3979405653519708,
          -0.4808240853226228,
          0.43129873203662744,
          0.15703090503958014,
          0.027258564264703994,
          0.4637494165114757
        ],
        [
          -0.2553636847234456,
          -0.5685939319962753,
          0.12017410578192278,
          -0.07241814831149333,
          0.06120356429821941,
          -0.09514034916602862
        ],
        [
          -0.1365727278662399,
          -0.19687325756897467,
          0.5214258274673569,
          0.061667449495037135,
          -0.15499470075671795,
          -0.08866057870330313
        ],
        [
          0.4898389755064068,
          -0.1124059471694145,
          -0.23783505654246384,
          0.09219726678895439,
          -0.0986446280669911,
          -0.2404171203813021
        ]
      ]
    },
    {
      "inputs": [
        1,
        0,
        0,
        0,
        0,
        0
      ],
      "outputs": [
        1,
        0,
        0,
        0
      ],
      "biases": [
        -0.38160043005504346,
        0.13975128529300923,
        0.4868970664561493,
        0.23501682048862352
      ],
      "weights": [
        [
          -0.010419907313907212,
          0.008851996810801482,
          0.2889534041826271,
          0.004043784781690851
        ],
        [
          0.47932578530845876,
          0.3293801845369466,
          0.06674734769888005,
          -0.07133093424494122
        ],
        [
          -0.15725033190665105,
          -0.1151119887370712,
          0.0819387556958835,
          0.31062111335675113
        ],
        [
          0.29036874954944236,
          -0.18459177794491527,
          -0.15190883784124753,
          0.05617488605355776
        ],
        [
          0.16077458996312732,
          0.2540649880428049,
          -0.13851422151761744,
          -0.2632637811902
        ],
        [
          0.5400142916856467,
          -0.3601067211987727,
          0.3305323243103579,
          0.3356159989226719
        ]
      ]
    }
  ]
}