{
  "levels": [
    {
      "inputs": [
        0.5164117026572647,
        0.10644533984612914,
        0,
        0,
        0.21079609120694953
      ],
      "outputs": [
        0,
        1,
        0,
        1,
        0,
        0
      ],
      "biases": [
        0.0768520852972831,
        -0.1450399980788531,
        0.020555941752084278,
        -0.09323494382373049,
        0.05003107580963556,
        -0.2564745291245022
      ],
      "weights": [
        [
          -0.20508088878560968,
          -0.22390722510838088,
          -0.046091555710273215,
          0.28891952309803703,
          -0.21235242135296184,
          -0.23909542384408128
        ],
        [
          -0.20256808604135515,
          -0.41994922076617314,
          -0.10625982609393722,
          -0.1574418572161233,
          -0.34023346142456945,
          -0.46282237172730734
        ],
        [
          -0.07227576888820436,
          -0.0578737611703973,
          0.3438763125954851,
          0.03077999693444544,
          0.050543291032489696,
          -0.08682477846597073
        ],
        [
          0.2514788748814454,
          0.04695770681754159,
          -0.06275155945815614,
          0.06020369259323888,
          0.4116379063285348,
          -0.01209148841983948
        ],
        [
          -0.06302736093469795,
          0.17622226141190941,
          -0.008462122935507924,
          0.07947177778335848,
          0.09172882743347381,
          -0.4065092927479489
        ]
      ]
    },
    {
      "inputs": [
        0,
        1,
        0,
        1,
        0,
        0
      ],
      "outputs": [
        1,
        0,
        0,
        0
      ],
      "biases": [
        -0.05241550281120856,
        0.12021729231997087,
        0.1443318582265965,
        0.14902990265145694
      ],
      "weights": [
        [
          0.28537065004811735,
          -0.05921984795084177,
          0.0485766842867634,
          -0.1569652147803396
        ],
        [
          0.31969906238339085,
          0.2323574550430474,
          -0.10762756779885693,
          0.006279528222149486
        ],
        [
          0.42019055098814934,
          0.049207572262423005,
          0.04778170792598015,
          -0.0007379125107333396
        ],
        [
          0.01973100221366464,
          -0.23972675155091716,
          0.21316855147170105,
          -0.06274648098306483
        ],
        [
          0.04887212732162831,
          0.1360703508876857,
          -0.2882799235326269,
          0.11678776798295182
        ],
        [
          0.005230035158562341,
          0.4915798890851445,
          -0.036276598322802764,
          -0.37153781763237215
        ]
      ]
    }
  ]
}