{
  "levels": [
    {
      "inputs": [
        0.17931412023652094,
        0,
        0,
        0,
        0,
        0.26505096115307425
      ],
      "outputs": [
        0,
        1,
        0,
        0,
        1,
        0
      ],
      "biases": [
        0.26110929290916596,
        -0.12200941977972911,
        0.25528621221944714,
        0.2269274537540935,
        -0.010939625443640577,
        0.06669280246800036
      ],
      "weights": [
        [
          0.23105732375553617,
          0.05705164490212564,
          -0.21345093246943606,
          -0.0574441736227649,
          -0.056226565289814456,
          0.04063419327798489
        ],
        [
          -0.11910097615902623,
          0.30294520463762414,
          -0.23055732270048823,
          0.26362384063906275,
          -0.2193275402036562,
          0.1656994128492346
        ],
        [
          -0.048109589857727286,
          0.07098473657450861,
          0.16189582399492775,
          0.4666349666170171,
          -0.025539882846437822,
          0.006471340130499104
        ],
        [
          0.1710593853950894,
          0.2071297972332762,
          0.02058226390600361,
          0.1751902284825933,
          -0.03385065069443712,
          -0.25621682289715797
        ],
        [
          0.019807938428288457,
          -0.1995554960295053,
          0.0224960984599981,
          0.18105902455395742,
          0.1750777886006022,
          0.3166058312775172
        ],
        [
          -0.1187675293568643,
          -0.38413299211153384,
          -0.021424376439841422,
          0.0689741578835663,
          0.46621570418524627,
          -0.25048342581260247
        ]
      ]
    },
    {
      "inputs": [
        0,
        1,
        0,
        0,
        1,
        0
      ],
      "outputs": [
        1,
        1,
        1,
        0
      ],
      "biases": [
        -0.014861770983450935,
        -0.15435898015118532,
        0.09648214698219817,
        0.23671633024909466
      ],
      "weights": [
        [
          -0.11420623204015476,
          -0.19643976066888952,
          -0.24612448431222841,
          0.1973944614231649
        ],
        [
          0.12938076515005417,
          -0.5148831992158478,
          0.23303699362242863,
          0.05265630183643945
        ],
        [
          -0.06497554855177985,
          0.043808036465632784,
          -0.1482881443066055,
          -0.1404076910662505
        ],
        [
          -0.21757109298873212,
          -0.30354397898873664,
          -0.03714310520684643,
          0.11024003952110217
        ],
        [
          0.1939426536461471,
          0.42134242021007906,
          0.03316349810711708,
          0.031784059058461274
        ],
        [
          0.24501797276758336,
          -0.027093432519801078,
          0.07041622194961962,
          0.04659622498544908
        ]
      ]
    }
  ]
}